Language model created by QuickLM on Sun Jun  9 05:52:30 EDT 2019
Copyright (c) 1996-2010 Carnegie Mellon University and Alexander I. Rudnicky

The model is in standard ARPA format, designed by Doug Paul while he was at MITRE.

The code that was used to produce this language model is available in Open Source.
Please visit http://www.speech.cs.cmu.edu/tools/ for more information

The (fixed) discount mass is 0.5. The backoffs are computed using the ratio method.
This model based on a corpus of 4 sentences and 6 words

\data\
ngram 1=6
ngram 2=8
ngram 3=4

\1-grams:
-0.7782 </s> -0.3010
-0.7782 <s> -0.2218
-1.3802 ONE -0.2218
-1.3802 THREE -0.2218
-1.3802 TWO -0.2218
-1.3802 ZERO -0.2218

\2-grams:
-0.9031 <s> ONE 0.0000
-0.9031 <s> THREE 0.0000
-0.9031 <s> TWO 0.0000
-0.9031 <s> ZERO 0.0000
-0.3010 ONE </s> -0.3010
-0.3010 THREE </s> -0.3010
-0.3010 TWO </s> -0.3010
-0.3010 ZERO </s> -0.3010

\3-grams:
-0.3010 <s> ONE </s>
-0.3010 <s> THREE </s>
-0.3010 <s> TWO </s>
-0.3010 <s> ZERO </s>

\end\
