Language model created by QuickLM on Thu Jun 13 11:29:41 EDT 2019
Copyright (c) 1996-2010 Carnegie Mellon University and Alexander I. Rudnicky

The model is in standard ARPA format, designed by Doug Paul while he was at MITRE.

The code that was used to produce this language model is available in Open Source.
Please visit http://www.speech.cs.cmu.edu/tools/ for more information

The (fixed) discount mass is 0.5. The backoffs are computed using the ratio method.
This model based on a corpus of 16 sentences and 19 words

\data\
ngram 1=19
ngram 2=33
ngram 3=17

\1-grams:
-0.7871 </s> -0.3010
-0.7871 <s> -0.2236
-1.9912 DOCK -0.2236
-1.9912 EIGHT -0.2236
-1.9912 FIVE -0.2236
-1.9912 FOUR -0.2236
-1.9912 NINE -0.2236
-1.9912 ONE -0.2236
-1.9912 ROBOMUSE -0.2966
-1.9912 SEVEN -0.2236
-1.9912 SHUTDOWN -0.2236
-1.9912 SIX -0.2236
-1.9912 START -0.2236
-1.9912 STOP -0.2236
-1.9912 TEN -0.2236
-1.9912 THREE -0.2236
-1.9912 TWO -0.2236
-1.9912 UNDOCK -0.2236
-1.9912 ZERO -0.2236

\2-grams:
-1.5051 <s> DOCK 0.0000
-1.5051 <s> EIGHT 0.0000
-1.5051 <s> FIVE 0.0000
-1.5051 <s> FOUR 0.0000
-1.5051 <s> NINE 0.0000
-1.5051 <s> ONE 0.0000
-1.5051 <s> ROBOMUSE 0.0000
-1.5051 <s> SEVEN 0.0000
-1.5051 <s> SHUTDOWN 0.0000
-1.5051 <s> SIX 0.0000
-1.5051 <s> STOP 0.0000
-1.5051 <s> TEN 0.0000
-1.5051 <s> THREE 0.0000
-1.5051 <s> TWO 0.0000
-1.5051 <s> UNDOCK 0.0000
-1.5051 <s> ZERO 0.0000
-0.3010 DOCK </s> -0.3010
-0.3010 EIGHT </s> -0.3010
-0.3010 FIVE </s> -0.3010
-0.3010 FOUR </s> -0.3010
-0.3010 NINE </s> -0.3010
-0.3010 ONE </s> -0.3010
-0.3010 ROBOMUSE START 0.0000
-0.3010 SEVEN </s> -0.3010
-0.3010 SHUTDOWN </s> -0.3010
-0.3010 SIX </s> -0.3010
-0.3010 START </s> -0.3010
-0.3010 STOP </s> -0.3010
-0.3010 TEN </s> -0.3010
-0.3010 THREE </s> -0.3010
-0.3010 TWO </s> -0.3010
-0.3010 UNDOCK </s> -0.3010
-0.3010 ZERO </s> -0.3010

\3-grams:
-0.3010 <s> DOCK </s>
-0.3010 <s> EIGHT </s>
-0.3010 <s> FIVE </s>
-0.3010 <s> FOUR </s>
-0.3010 <s> NINE </s>
-0.3010 <s> ONE </s>
-0.3010 <s> ROBOMUSE START
-0.3010 <s> SEVEN </s>
-0.3010 <s> SHUTDOWN </s>
-0.3010 <s> SIX </s>
-0.3010 <s> STOP </s>
-0.3010 <s> TEN </s>
-0.3010 <s> THREE </s>
-0.3010 <s> TWO </s>
-0.3010 <s> UNDOCK </s>
-0.3010 <s> ZERO </s>
-0.3010 ROBOMUSE START </s>

\end\